[array([[ 0.        ,  0.        ,  0.        , ...,  0.        ,
         0.        ,  0.        ],
       [-0.08085101,  0.02538112,  0.06733221, ...,  0.11001154,
        -0.02300517, -0.02650033],
       [ 0.13698182,  0.64890939, -0.00730351, ...,  0.23487224,
         0.14287613, -0.23931247],
       ..., 
       [-0.18766031,  0.21529819,  0.19916505, ..., -0.28947273,
        -0.17249936,  0.24727306],
       [-0.18756302,  0.28895566, -0.02060606, ...,  0.11290564,
         0.02799299, -0.23207577],
       [ 0.31433237,  0.03292316,  0.01892814, ..., -0.12459382,
         0.20827885,  0.174603  ]], dtype=float32), array([[-0.04321361, -0.02648742, -0.06775428, ..., -0.04190538,
        -0.03118905, -0.07871687],
       [ 0.0019733 ,  0.01109612,  0.08854147, ..., -0.03176998,
         0.00896536,  0.0561293 ],
       [-0.03202991,  0.01459957, -0.00369515, ..., -0.04256727,
         0.09310777, -0.09681007],
       ..., 
       [-0.05164794, -0.04208295, -0.02008034, ...,  0.02490864,
         0.0512977 ,  0.00580605],
       [-0.07808824, -0.03180693,  0.04648705, ...,  0.03600198,
        -0.04291144,  0.00644231],
       [-0.01375845,  0.00874052, -0.06999305, ..., -0.02603287,
        -0.06030004, -0.02550881]], dtype=float32), array([[-0.01114744,  0.06524793,  0.01932187, ...,  0.03422052,
        -0.01876366,  0.01008727],
       [ 0.00613784, -0.07024375, -0.07140595, ...,  0.01088052,
         0.07116911, -0.01216152],
       [ 0.0155698 ,  0.0575538 ,  0.08631686, ..., -0.04312868,
        -0.05023834, -0.02454179],
       ..., 
       [-0.02734059, -0.01147306, -0.05397703, ..., -0.00757786,
         0.03601458,  0.00103606],
       [-0.00178488, -0.04118388, -0.02918599, ..., -0.00904718,
         0.13985862, -0.00733206],
       [ 0.03597878,  0.01437662, -0.036185  , ...,  0.05638084,
        -0.03882904, -0.01294916]], dtype=float32), array([  2.64874659e-02,   3.41008119e-02,   2.39894520e-02,
         3.16261128e-02,   1.97449252e-02,   3.25457081e-02,
         2.45336182e-02,   9.45508853e-02,   2.19877250e-02,
         3.78324017e-02,   1.66494318e-03,   3.97679769e-03,
         3.33031416e-02,   1.64315961e-02,   3.35025489e-02,
         1.51835019e-02,   4.10334207e-02,   2.19456833e-02,
         1.21666556e-02,   1.60117224e-02,   9.02090501e-03,
        -1.44937960e-02,   2.10686885e-02,   1.02063296e-02,
        -4.00328403e-03,   2.57584788e-02,   1.58290192e-02,
         8.41109455e-03,   3.00240517e-02,   1.46696130e-02,
         2.16055457e-02,   1.62625238e-02,   3.55821066e-02,
         1.22140441e-02,   2.99100149e-02,   3.45650911e-02,
         1.96062922e-02,   2.61638407e-02,   9.34656989e-03,
        -3.27883288e-02,   3.26475501e-02,   1.16592990e-02,
         2.04041451e-02,   3.02839396e-03,   1.16718514e-02,
         1.83116663e-02,  -5.09075113e-02,   1.73614472e-02,
        -2.88300104e-02,   1.45263812e-02,   5.26741594e-02,
         3.76692228e-02,   4.41100262e-02,  -6.27143867e-03,
         1.94401965e-02,   1.74406059e-02,   2.70481929e-02,
         1.81266814e-02,   3.09025478e-02,   9.88307036e-03,
         2.61091217e-02,   2.17721332e-02,   3.11555099e-02,
         6.81523932e-03,   2.26601306e-02,   2.13632081e-02,
         2.50344295e-02,   1.43710459e-02,   2.29708590e-02,
         5.00520915e-02,  -3.71328332e-02,   1.11108422e-02,
        -2.47362088e-02,  -3.28953820e-03,   2.00569537e-02,
         2.65086740e-02,   3.62070650e-02,   3.01455837e-02,
        -3.10816970e-02,   1.70184262e-02,   2.73708757e-02,
         3.54433320e-02,   2.48482767e-02,   1.61979757e-02,
         3.20577212e-02,   3.98431672e-03,   3.07710413e-02,
        -3.50434706e-02,   2.03775447e-02,   4.05342691e-02,
         1.45166246e-02,   1.55430892e-02,   3.31994779e-02,
         1.51201487e-02,  -2.21980233e-02,   1.80810411e-02,
         2.34427005e-02,   2.94806343e-02,   2.25666631e-02,
         8.61744862e-03,   2.08412912e-02,   1.59236863e-02,
         4.12223041e-02,   3.52555960e-02,   3.23597230e-02,
         2.67831869e-02,   1.91111434e-02,   3.29647362e-02,
         3.23035493e-02,   2.53800023e-02,   2.62800846e-02,
        -3.32670473e-02,   2.61904430e-02,   2.44205557e-02,
        -3.42960842e-02,   1.85957793e-02,   3.13130282e-02,
         8.72483477e-03,   3.03596184e-02,   6.58543664e-04,
         1.41345393e-02,  -3.37391943e-02,  -9.12578963e-03,
         1.96000487e-02,   2.16869172e-02,   1.32828094e-02,
         1.90677047e-02,   9.07465816e-04,   2.34926455e-02,
         2.66977362e-02,  -4.11379524e-03,   2.43888739e-02,
         1.11127216e-02,   1.34004029e-02,   3.08321863e-02,
         1.85358562e-02,   3.97349261e-02,   1.02601172e-02,
         3.81564535e-03,   1.45621141e-02,   6.22224398e-02,
         2.90087052e-02,   1.11336829e-02,   7.59691838e-03,
         1.15123717e-02,   2.47106664e-02,   3.13203894e-02,
         2.35101655e-02,   2.54835747e-02,   3.08328308e-02,
         3.10161486e-02,   3.83627415e-02,   1.28797125e-02,
        -2.64851265e-02,   2.56677456e-02,   1.31377410e-02,
        -2.68554389e-02,   1.24622500e-02,   2.82586478e-02,
        -7.40938685e-06,   2.86682621e-02,  -9.01422463e-03,
         1.61411911e-02,   2.47227587e-02,   2.94439886e-02,
         2.17566714e-02,   2.91174762e-02,   5.76408021e-03,
         1.82600114e-02,  -1.52640068e-03,   1.94929112e-02,
         1.65311657e-02,   3.96456048e-02,   1.63079314e-02,
         3.72738652e-02,  -2.37816423e-02,  -1.35840364e-02,
         1.69352964e-02,   2.24852636e-02,   3.51439677e-02,
         2.55558062e-02,   1.65616088e-02,   3.55385356e-02,
         3.03622764e-02,   1.55388508e-02,   2.77999211e-02,
         4.02112231e-02,   3.46119702e-02,   3.63036208e-02,
         2.68797874e-02,   1.74151100e-02,   1.10947341e-02,
         2.22311355e-02,   5.67036914e-03,   2.13138238e-02,
         3.85158882e-02,   1.72371399e-02,   2.03291327e-02,
         3.20095047e-02,   2.54042242e-02,   2.01579947e-02,
         1.69126540e-02,  -1.77881047e-02,   2.26561613e-02,
         1.71795543e-02,   2.60783229e-02,   2.43418328e-02,
         2.62511987e-02,   1.77545864e-02,   2.48252209e-02,
        -2.01182049e-02,   2.46192329e-02,  -1.65134028e-03,
         1.38016054e-02,   1.65002479e-04,   1.44228050e-02,
         4.76799614e-04,   5.07806148e-03,   1.94949750e-02,
         1.20883330e-03,   2.34673657e-02,   6.49764901e-03,
         1.54407406e-02,   2.36963052e-02,  -3.74751948e-02,
         2.10246593e-02,   1.21427709e-02,  -7.03964662e-03,
         2.87258718e-02,  -1.36399856e-02,   2.68150214e-02,
         2.79442612e-02,  -3.16721834e-02,   3.24849822e-02,
         2.39610970e-02,   3.64575759e-02,   1.44905541e-02,
         2.15912107e-02,  -2.79184394e-02,   3.41260880e-02,
         1.86244156e-02,   1.71364602e-02,   2.41606142e-02,
         3.36834751e-02,   3.86357307e-02,   2.77867429e-02,
        -8.39025248e-03,  -4.34507728e-02,   4.05695923e-02,
         2.66059320e-02,   2.74260771e-02,   1.28042130e-02,
         2.84655653e-02,  -6.77569443e-03,  -3.15341838e-02,
         2.95411684e-02,   3.79767530e-02,  -1.40014635e-02,
         3.93307991e-02,   2.16953028e-02,   2.71010324e-02,
        -1.00243585e-02,   1.65880360e-02,   3.00096497e-02,
         3.62096913e-02,   5.29023260e-02,   1.52384667e-02,
         3.25913716e-04,   3.18126418e-02,   2.09357180e-02,
         6.11935975e-03,   2.19196212e-02,   1.04595860e-02,
         3.13233584e-02,   1.87664982e-02,  -1.81239732e-02,
         2.40473412e-02,   3.82960439e-02,   2.26844177e-02,
         3.08945235e-02,   5.93205332e-04,   6.23772433e-03,
        -7.17356335e-03,   2.07192842e-02,   3.66894417e-02,
         3.70019302e-02,   1.49344765e-02,   2.33085062e-02,
         5.30413492e-03,   2.14107335e-02,  -2.50046048e-02,
         3.71997654e-02,   1.28805060e-02,   1.77063998e-02,
         8.57010949e-03,   1.74712278e-02,  -6.52224844e-05,
         2.99659427e-02,   3.15331556e-02,   2.83990819e-02,
        -2.47911029e-02,  -2.39437278e-02,  -1.01993780e-03,
        -2.54180301e-02,  -1.39625771e-02,  -9.32577439e-03,
         9.79407877e-03,   7.76834460e-03,  -1.74246784e-02,
        -2.90653687e-02,   2.44063372e-03,   6.97895279e-03,
        -9.78115667e-03,  -2.71877609e-02,   2.28707232e-02,
        -8.15276429e-03,  -1.50657129e-02,  -2.75336416e-03,
         2.80705863e-03,  -2.87646912e-02,  -1.32413441e-02,
        -2.79584769e-02,  -2.19910499e-02,  -1.49422875e-02,
        -3.12382765e-02,  -2.33671330e-02,  -1.64009165e-02,
        -1.81264244e-02,  -2.90503129e-02,   1.75499469e-02,
        -2.22337041e-02,  -1.35961892e-02,  -1.78518053e-02,
        -5.92468772e-03,  -2.50595268e-02,  -3.83976065e-02,
        -1.47090154e-03,  -4.30862373e-03,   1.47074992e-02,
        -1.97014194e-02,  -5.55518409e-03,  -2.01067291e-04,
         9.73589486e-04,  -2.20248178e-02,  -1.03790276e-02,
        -1.68431830e-02,  -1.26295919e-02,  -4.71250387e-03,
         2.53106356e-02,   1.11022433e-02,   3.66777182e-02,
         1.41100585e-03,  -9.84513853e-03,   6.97414903e-03,
        -8.03121924e-03,   1.16925044e-02,  -1.91620495e-02,
        -1.59734804e-02,   3.77672538e-03,  -3.78213413e-02,
        -1.48245580e-02,  -1.16115753e-02,   1.64281353e-02,
        -3.17231081e-02,  -2.06310097e-02,  -1.35257104e-02,
        -1.39952218e-02,   6.05798848e-02,   2.96374317e-02,
         2.40999237e-02,   3.66210118e-02,   2.29809643e-03,
         3.29398960e-02,  -4.45583351e-02,   2.44895313e-02,
         2.78429817e-02,   9.17290896e-03,  -1.90426745e-02,
        -1.38252517e-02,  -1.67536549e-02,  -2.52680127e-02,
        -2.47310717e-02,  -4.70755948e-03,  -3.53473984e-02,
        -1.65153854e-02,  -9.98810492e-03,  -3.33449803e-03,
         1.31615931e-02,  -1.68477576e-02,  -1.28377918e-02,
         1.86047964e-02,   6.56847423e-03,  -4.18818463e-03,
        -5.12040313e-03,  -1.62488669e-02,   2.32090056e-03,
        -2.21114233e-02,   9.55471024e-03,  -8.82034749e-03,
        -2.59312894e-02,  -3.42587121e-02,  -3.21129407e-03,
        -5.56157297e-03,  -2.75792647e-02,  -1.11343339e-02,
        -1.90561824e-02,   1.01555753e-02,  -2.13770736e-02,
        -2.18889471e-02,   6.56562438e-03,   2.75520701e-02,
        -2.88853571e-02,   2.38071140e-02,   3.14007737e-02,
         2.21397616e-02,  -1.64881703e-02,  -8.03137850e-03,
         1.84131265e-02,   1.87973436e-02,  -1.38534335e-02,
        -2.25241370e-02,   4.48045731e-02,   1.98704451e-02,
        -2.06847042e-02,  -1.91269144e-02,  -2.49486603e-02,
        -1.43511072e-02,  -3.63982486e-04,   8.79954081e-03,
         3.49514466e-03,  -6.46100752e-03,   1.89760458e-02,
        -3.68132978e-03,  -1.35667874e-02,   9.80302226e-03,
        -2.56800260e-02,  -2.74399910e-02,  -5.45789581e-03,
        -4.19668220e-02,   3.20585095e-03,  -1.42272245e-02,
        -1.14197964e-02,  -3.61594767e-03,  -6.73716329e-03,
        -1.54240616e-03,   8.70090153e-04,   1.60875674e-02,
         1.18062748e-02,  -3.05703096e-02,  -1.03781261e-02,
        -1.08012306e-02,  -8.43538903e-03,  -3.02412771e-02,
         2.90369652e-02,  -2.81711761e-02,   3.20968777e-02,
        -2.42007319e-02,  -3.86426523e-02,  -1.40511887e-02,
        -2.90420018e-02,   2.37308517e-02,   2.31377911e-02,
        -1.29988361e-02,   2.69740336e-02,  -3.26850675e-02,
        -1.12294173e-02,  -3.17462981e-02,  -6.96085207e-03,
         1.03358282e-02,  -5.88275470e-05,   9.01373755e-03,
        -1.32884244e-02,   5.25989104e-03,  -1.01679061e-02,
        -1.27338348e-02,   2.73855031e-02,   2.80801393e-02,
        -1.43450033e-02,   1.01559628e-02,  -2.14573219e-02,
        -5.56801632e-03,   3.70739214e-02,   3.92177664e-02,
        -2.16118284e-02,  -3.56829241e-02,  -2.27083024e-02,
        -1.96022429e-02,  -1.77940112e-02,  -4.36421437e-03,
        -3.01903393e-02,  -3.07755396e-02,  -2.21113227e-02,
        -1.49650807e-02,   3.29018990e-03,   6.69717323e-04,
         2.89593861e-02,   3.08679938e-02,   1.08600752e-02,
        -1.11965127e-02,  -3.22171338e-02,  -8.73388164e-03,
        -3.21463794e-02,  -1.04361400e-02,  -1.26644876e-02,
        -3.92842246e-03,   6.88806595e-03,  -1.85077135e-02,
         8.14444292e-03,  -9.29067843e-03,   2.27567162e-02,
        -2.69853398e-02,  -9.65934433e-03,   3.22758928e-02,
        -1.91259813e-02,   2.92234607e-02,  -8.82440247e-03,
        -2.88113598e-02,  -4.05695960e-02,   3.45106348e-02,
        -1.79132558e-02,  -1.73132848e-02,   2.58175693e-02,
        -1.77340601e-02,  -2.96336832e-03,  -4.11525853e-02,
        -5.91352768e-03,   4.90765506e-03,  -1.31192841e-02,
        -1.19396392e-02,  -2.27181055e-02,  -1.42377326e-02,
        -4.46387706e-03,   4.88953255e-02,  -2.33863574e-02,
        -1.34970127e-02,  -1.44514851e-02,  -1.47533370e-02,
        -1.63530987e-02,  -1.07576707e-02,  -4.52499241e-02,
         1.51047800e-02,  -2.28618812e-02,  -1.90861393e-02,
        -1.03074722e-02,  -2.63124262e-03,  -1.69776566e-02,
        -2.16951948e-02,  -1.20303929e-02,  -1.81720164e-02,
        -1.37682268e-02,   1.14138667e-02,   1.92290861e-02,
        -2.40386426e-02,  -1.61479097e-02,  -1.87877417e-02,
        -1.24977268e-02,   3.84251513e-02,   2.33404338e-02,
         1.61133613e-02,  -1.97122321e-02,   9.56081133e-03,
         1.05592590e-02,  -1.37980077e-02,  -2.12863870e-02,
         2.32236031e-02,  -3.84597965e-02,  -6.54213084e-03,
        -1.21520469e-02,  -3.51083800e-02,  -2.81911548e-02,
        -8.71532131e-03,  -2.61903368e-02,  -5.40529331e-03,
        -1.18183941e-02,  -7.10198982e-03,   7.40959868e-03,
        -1.77588258e-02,  -1.02038849e-02,   2.51428150e-02,
        -3.13909985e-02,   1.49519220e-02,  -9.28660482e-03,
        -9.44336504e-03,  -8.85363016e-03,   1.99278705e-02,
         2.57032923e-02,   5.52329049e-03,  -4.25367728e-02,
         2.20622011e-02,  -3.16251107e-02,  -1.06245251e-02,
        -2.05898588e-03,   1.11927977e-02,  -1.94652379e-02,
        -2.69682687e-02,   3.46548739e-03,  -1.24911088e-02,
        -9.39708203e-03,   5.28718391e-03,  -4.11753282e-02,
         6.57226890e-04,  -1.75640406e-03,  -2.64017470e-02,
         3.28704081e-02,   1.42051652e-02,  -2.76420894e-03,
         3.93763408e-02,  -8.15073960e-03,   3.38687077e-02,
         1.77344698e-02,   1.36713758e-02,   2.42516267e-04,
         1.80375727e-03,  -1.66997630e-02,   7.63482368e-03,
        -1.32999290e-02,   3.60781550e-02,  -5.88695845e-03,
        -2.94780619e-02,   7.34921219e-03,   1.35105839e-02,
        -6.58421824e-03,   7.45199155e-03,  -2.16350537e-02,
         2.13534776e-02,  -1.01558818e-02,   1.09527530e-02,
         2.13419087e-02,  -9.38572641e-03,   2.00793985e-02,
         1.54978586e-02,   1.99563224e-02,   1.80177279e-02,
        -2.73298118e-02,   1.43195805e-03,  -2.56434940e-02,
        -1.31507255e-02,  -2.36895308e-02,  -7.50492932e-03,
        -1.76056959e-02,   1.20965475e-02,   2.55024564e-02,
        -1.10060452e-02,  -3.17427726e-03,  -3.19978185e-02,
         1.45517495e-02,   3.12958993e-02,   9.62143205e-03,
         1.99054442e-02,  -5.98063786e-03,   2.42473073e-02,
        -3.35927121e-02,   1.35045871e-02,  -1.52827986e-02,
        -2.82601528e-02,  -2.99139135e-03,  -2.83254851e-02,
         1.22253830e-02,  -3.57714519e-02,  -2.71997005e-02,
        -1.50253419e-02,   2.46407930e-02,  -3.56717855e-02,
         2.00515427e-02,  -6.28996175e-03,  -2.72448435e-02,
        -2.77461875e-02,  -2.03399099e-02,  -2.35459376e-02,
         5.70990238e-03,   9.49870516e-03,  -3.17294262e-02,
         3.11089214e-02,  -3.74438651e-02,   1.40721444e-02,
         1.67353544e-02,  -3.21835978e-03,   8.77871271e-03,
        -3.41274701e-02,  -1.33142546e-02,  -2.99152336e-03,
         4.73076524e-03,   1.02532897e-02,  -4.22182307e-03,
        -7.36562943e-05,   2.45875362e-02,  -2.10883375e-02,
        -1.76459160e-02,   2.05084104e-02,   2.39729695e-02,
         2.45990008e-02,  -7.45448889e-03,  -3.01002748e-02,
         1.32727949e-02,   3.31442244e-02,  -1.38645424e-02,
        -2.82762945e-03,  -4.09355760e-02,  -2.66498476e-02,
         3.19415256e-02,   2.53345948e-02,   2.93795653e-02,
        -2.30425131e-02,   7.28446245e-03,  -4.66463529e-03,
         1.89550109e-02,   1.15429210e-02,   7.88295921e-03,
        -1.31715685e-02,   2.77794376e-02,   2.88976841e-02,
         3.01281866e-02,  -2.90063140e-03,  -1.89637542e-02,
        -4.09236964e-04,  -2.00432865e-03,   1.69342589e-02,
        -2.28006337e-02,   1.65611859e-02,  -7.12725427e-03,
        -3.07670739e-02,  -3.28955464e-02,  -2.48190202e-03,
         1.87091809e-02,  -1.63658559e-02,  -2.47346540e-03,
        -1.80103593e-02,   2.48039924e-02,  -2.18960159e-02,
         6.49273209e-03,  -2.15548091e-03,  -1.13561144e-02,
        -1.48725091e-02,   6.68668700e-03,   3.34784798e-02,
        -2.10190527e-02,  -1.96886132e-03,   1.56805702e-02,
        -1.36503531e-02,  -7.03442795e-03,   2.15221792e-02,
        -1.39994500e-02,  -2.79600080e-02,  -4.39964840e-03,
         7.10332626e-03,  -2.00619996e-02,  -2.13890076e-02,
         2.51931101e-02,   3.25812362e-02,   2.95574008e-03,
         3.40906605e-02,   2.89986879e-02,  -2.04281453e-02,
         1.61499828e-02,  -9.37255099e-03,  -1.98432729e-02,
         1.13932202e-02,  -3.39923427e-02,   1.56518705e-02,
         3.66365910e-02,   1.31869540e-02,   4.20689909e-03,
        -2.27404218e-02,   1.72660593e-02,   1.75369475e-02,
         5.23933209e-03,   4.00243141e-02,  -1.23024024e-02,
         2.16361769e-02,  -4.40044608e-03,  -9.97666735e-03,
        -1.78797860e-02,   3.16285081e-02,  -1.23650050e-02,
         1.99329425e-02,   7.28388026e-04,  -2.52734870e-02,
        -3.68860713e-03,  -9.61206760e-03,  -9.99527983e-03,
         1.74572561e-02,   8.08195863e-03,  -2.56241690e-02,
        -1.75690036e-02,  -2.20458601e-02,  -3.41471359e-02,
        -1.06274029e-02,  -2.50217281e-02,  -1.78123564e-02,
         1.96603611e-02,   2.19830219e-02,   2.50140335e-02,
         2.13304982e-02,  -2.11509094e-02,   1.02892164e-02,
        -1.71255805e-02,  -1.31409587e-02,   8.23669019e-04,
        -1.61199886e-02,   3.30183026e-03,  -3.95212881e-03,
         1.89499017e-02,  -2.69190893e-02,   2.22435277e-02,
         1.59852691e-02,   1.50171332e-02,  -1.12105887e-02,
         2.86773778e-02,  -2.11112741e-02,  -6.38509076e-03,
        -3.22213136e-02,  -1.49482004e-02,   1.73414964e-02,
         1.95645168e-02,   1.77259967e-02,   1.82375647e-02,
         2.36031804e-02,  -1.59440786e-02,  -3.00573781e-02,
        -1.91934016e-02,  -1.84597559e-02,   2.84639616e-02,
         2.87879398e-03,   5.59954159e-03,  -1.40035851e-02,
         1.49716195e-02,   1.03311297e-02,   2.31816005e-02,
        -1.46595612e-02,  -3.00252475e-02,  -1.93798319e-02,
         1.55020161e-02,   4.47067199e-03,   7.96413328e-03,
        -3.27958204e-02,   1.72848701e-02,  -8.58312100e-03,
        -4.02465183e-03,  -3.07407975e-02,  -2.82759797e-02,
        -3.54273804e-02,   5.85275749e-03,  -2.07553562e-02,
        -1.14354643e-03,  -9.70294885e-03,   2.84221843e-02,
         2.42028236e-02,   2.60491762e-03,  -1.98181998e-02,
         2.58450191e-02,   2.64805611e-02,  -1.40142152e-02,
        -1.64760591e-03,   3.20215374e-02,   1.79336090e-02,
         3.36980857e-02,   2.15692427e-02,  -8.27693008e-03,
        -2.80617606e-02,  -1.20592806e-02,   2.74282116e-02,
         7.25889765e-03,  -1.03948321e-02,  -9.82417609e-04,
         3.77997980e-02,   3.39490399e-02,   3.08653880e-02,
        -1.30049419e-02,   6.86329463e-03,  -3.76693606e-02,
         2.74115824e-03,  -3.40339914e-03,   4.04326580e-02,
        -2.43974701e-02,   1.37048075e-02,   1.50307175e-03,
        -2.99083963e-02,  -1.99164245e-02,  -5.99521631e-03,
         3.42635140e-02,  -7.12937117e-03,   8.54830796e-05,
        -4.34578881e-02,   3.58813368e-02,   1.48261273e-02,
        -3.39319929e-02,  -1.20189311e-02,  -2.69796941e-02,
         1.04232552e-02,   8.10819678e-03,   1.33840935e-02,
        -2.25827228e-02,  -5.07147145e-03,   1.24777220e-02,
        -1.41341062e-02,   6.02767430e-03,   1.69765744e-02,
         1.19776046e-02,  -2.94413511e-02,   3.40881459e-02], dtype=float32), array([[ 0.03497893, -0.051573  ,  0.03798649, ...,  0.00431953,
         0.02328046, -0.00629445],
       [-0.01167259,  0.04202372, -0.01174621, ...,  0.04822365,
         0.05199166,  0.02629816],
       [-0.04369725, -0.02260741, -0.00810795, ..., -0.04099008,
        -0.0267327 ,  0.04451089],
       ..., 
       [ 0.02806565, -0.02936085,  0.00972593, ..., -0.00409075,
         0.0748884 ,  0.02043454],
       [ 0.01957605, -0.07178615, -0.04516092, ...,  0.04333596,
         0.04426691,  0.07864358],
       [ 0.00246288, -0.03040108, -0.05233309, ...,  0.04464753,
         0.07092179,  0.0412479 ]], dtype=float32), array([[-0.04568587,  0.00778347, -0.03454528, ..., -0.083786  ,
        -0.07392998,  0.07231797],
       [ 0.02354921,  0.02388236,  0.03582608, ..., -0.0157608 ,
         0.02047173, -0.06988822],
       [ 0.00772889, -0.02359473, -0.01176986, ..., -0.03462004,
         0.07647654, -0.03508713],
       ..., 
       [ 0.00789706, -0.03192506, -0.02980152, ...,  0.02926499,
         0.0210742 ,  0.03318976],
       [ 0.0318885 ,  0.03483464,  0.05066989, ...,  0.02777526,
         0.05442723, -0.02941903],
       [-0.04994532, -0.02163877, -0.01378769, ..., -0.04674967,
        -0.04733218,  0.00797198]], dtype=float32), array([ -2.22328177e-04,  -8.84164870e-03,  -1.36687309e-02,
        -1.12623274e-02,  -1.43387998e-02,  -1.23587707e-02,
        -1.22443950e-02,  -1.10999467e-02,  -7.92839448e-04,
         2.63304194e-03,   3.03843478e-03,  -1.25746140e-02,
        -7.33413966e-03,  -1.30675891e-02,   8.13199021e-03,
        -3.30318622e-02,   1.44822299e-02,  -1.04544889e-02,
        -1.47126028e-02,  -1.31670879e-02,  -1.34895314e-02,
         2.72637922e-02,   2.34546345e-02,  -7.78223248e-03,
        -1.30559225e-02,  -1.00019109e-02,  -1.43255219e-02,
        -9.85960849e-03,  -9.33059212e-03,  -1.88663974e-02,
         1.55222602e-02,  -1.25367735e-02,  -1.77914854e-02,
         3.87488976e-02,   1.37068946e-02,   4.85217012e-03,
        -1.91816632e-02,   2.89912871e-03,   1.39818038e-03,
         3.95204872e-03,  -1.60502661e-02,   4.40355623e-03,
        -8.20941664e-03,  -3.96225462e-03,  -5.48350532e-03,
         7.32133863e-03,  -1.37394229e-02,   2.78989715e-03,
        -1.21778771e-02,  -1.14809377e-02,  -5.01214701e-04,
        -1.53344581e-02,  -5.91839524e-03,   1.51567524e-02,
        -2.02008779e-03,   1.36766853e-02,  -3.57908732e-03,
        -7.32926046e-03,  -2.03327872e-02,  -1.56140234e-02,
        -1.57115026e-03,   3.97147983e-03,  -9.86073259e-03,
         2.10465528e-02,   3.50816012e-03,  -1.05782961e-02,
         9.66367871e-03,   1.70529336e-02,  -7.88546540e-03,
        -1.04773249e-02,  -1.08257057e-02,  -1.87687539e-02,
        -1.15975654e-02,  -1.00888154e-02,  -7.68165011e-03,
         2.45523602e-02,  -9.69293155e-03,  -1.46264620e-02,
        -6.11039577e-04,  -1.65643599e-02,   3.05308495e-03,
         8.58687796e-03,   2.83461735e-02,  -1.35827763e-02,
        -8.25308915e-03,  -1.56458246e-03,  -1.80544909e-02,
        -1.04510523e-02,  -1.94287132e-02,  -1.37433438e-02,
        -7.39920791e-03,   7.67726218e-03,  -6.49929186e-03,
         1.30797736e-03,  -8.67331680e-03,  -8.52456782e-03,
        -1.36864278e-02,   2.43543833e-02,   3.05517088e-03,
        -1.10427951e-02,   1.25070382e-02,   3.71878734e-03,
         8.28489847e-03,   1.05892553e-03,  -1.53529290e-02,
        -1.20682456e-02,  -1.45108616e-02,  -9.52809863e-03,
        -1.20317899e-02,  -1.13902595e-02,  -3.74849420e-03,
         2.17793408e-04,   1.36667251e-04,  -6.65437197e-04,
        -8.26479227e-04,   1.32535426e-02,   7.87900237e-04,
         1.18893757e-02,  -1.38915246e-02,   4.66092583e-03,
         1.21228583e-02,   5.13416715e-03,  -1.58099309e-02,
        -1.43740810e-02,   4.04260773e-03,  -7.07193278e-03,
         2.43259477e-03,  -3.59192640e-02,  -9.92576033e-03,
        -3.08684772e-04,  -4.04744968e-03,  -1.37194088e-02,
        -1.10610889e-03,   1.35322316e-02,   8.32064264e-03,
         3.65069285e-02,  -1.05793839e-02,  -2.34987196e-02,
        -8.07994697e-03,  -1.05841551e-02,  -1.26029029e-02,
        -4.36597317e-03,  -1.39895808e-02,  -5.89433545e-03,
        -7.08770007e-03,  -1.06430305e-02,   1.31254923e-02,
         7.71165080e-03,  -8.99467152e-03,  -1.26846563e-02,
        -8.45725735e-05,  -1.28545333e-03,   6.20627031e-03,
        -1.20142866e-02,  -2.47866876e-04,   5.64093469e-03,
        -1.27865029e-02,  -1.99546833e-02,  -1.41816633e-02,
        -5.97142521e-03,   4.93057305e-03,  -4.52257916e-02,
        -1.40445009e-02,  -1.36411749e-02,  -1.79429073e-02,
        -1.14280237e-02,   1.93166602e-02,  -9.15817730e-03,
        -1.31890122e-02,  -1.19472360e-02,   5.71288029e-03,
         7.95296486e-03,   1.55234467e-02,  -1.20595312e-02,
        -1.66882239e-02,  -1.38160596e-02,  -1.06814690e-02,
        -1.12419808e-02,  -3.34828137e-03,  -1.12909423e-02,
        -6.64356072e-03,   5.69521170e-03,   1.14135509e-02,
        -2.75827013e-02,   3.84587385e-02,  -1.35751516e-02,
        -1.48405349e-02,   1.50082763e-02,  -1.28006982e-02,
         1.75584778e-02,   4.03151242e-03,  -2.07500588e-02,
         4.75098975e-02,  -2.69357511e-03,  -5.97127760e-03,
         6.06467761e-02,  -8.13390128e-04,  -2.43860390e-02,
        -1.00899013e-02,  -1.00025320e-02,   1.28577612e-02,
        -1.17741851e-02,   3.93445231e-02,   1.51593480e-02,
         5.36353327e-03,  -1.01293260e-02,  -1.22082848e-02,
         1.92427319e-02,  -1.55057833e-02,  -3.54877510e-03,
        -1.18480772e-02,  -7.03497324e-03,  -7.35557498e-03,
         2.64954250e-02,   1.21475719e-02,   3.51131707e-02,
        -1.57734882e-02,  -1.86718050e-02,   3.34037244e-02,
        -1.50804110e-02,  -1.43611543e-02,   9.92655754e-04,
         4.97023459e-04,  -1.33934710e-02,  -1.76444743e-02,
        -1.45771503e-02,   1.97578799e-02,   2.87846364e-02,
        -1.13878772e-02,  -1.27645275e-02,  -1.60422962e-04,
        -1.29823480e-02,  -1.46727534e-02,  -3.08955810e-03,
         1.02322863e-03,  -7.08816014e-03,  -2.66735964e-02,
        -2.65695457e-03,  -1.26092192e-02,   2.15007197e-02,
        -1.30137689e-02,  -1.34028476e-02,  -1.48467282e-02,
        -1.35795008e-02,  -1.63603015e-02,   1.10746175e-02,
         8.52775015e-03,   1.58975888e-02,  -6.81385631e-03,
        -1.31200049e-02,   9.50215384e-03,  -1.75208561e-02,
        -1.16903745e-02,  -2.19514091e-02,   2.50188727e-03,
        -1.35216545e-02,  -4.44387039e-03,  -1.72673278e-02,
        -1.13829290e-02,  -1.78419184e-02,  -1.30201923e-02,
        -1.01235872e-02,   1.01804482e-02,  -7.67118996e-03,
        -1.64541304e-02,  -8.28671921e-03,  -8.73055961e-03,
        -3.08316667e-03,   6.28363015e-03,  -1.05323503e-02,
         2.26209145e-02,  -8.66558496e-03,  -8.43498390e-03,
        -7.93818384e-03,  -1.11142285e-02,   2.22301446e-02,
        -1.05734402e-02,  -2.67288443e-02,  -2.18398380e-03,
         2.27317009e-02,  -1.25634400e-02,  -4.53993632e-03,
         6.61542499e-03,  -7.67026283e-03,   4.10155766e-03,
         1.96232703e-02,  -6.02033362e-03,   1.36390072e-03,
        -1.32555077e-02,   3.12858960e-03,  -1.26083903e-02,
        -1.29271112e-02,  -1.70552284e-02,  -2.97893714e-02,
        -2.20011361e-02,   2.58809626e-02,  -3.50318244e-03,
        -2.00186241e-02,  -1.88795179e-02,   1.82779972e-03,
         2.55151074e-02,   1.40339835e-02,   1.29250353e-02,
        -1.22274961e-02,   2.80576311e-02,  -1.64504945e-02,
        -2.40885951e-02,   1.43486485e-02,  -2.14443309e-03,
        -1.12433601e-02,   2.75342334e-02,   9.46829747e-03,
         1.08139385e-02,   2.34795492e-02,   2.74664592e-02,
         6.38699811e-03,   1.57927740e-02,  -4.74796258e-03,
         3.02659199e-02,   1.80141870e-02,  -1.42853297e-02,
         4.33304161e-03,   1.85968820e-02,   4.02662030e-04,
         1.41826887e-02,   2.00864836e-03,   1.62166525e-02,
         1.86981745e-02,  -1.01864338e-02,   2.59688478e-02,
         8.49662442e-03,  -2.26765536e-02,   2.64147576e-02,
         8.84436246e-04,   7.35773146e-03,   1.33559685e-02,
        -3.02311480e-02,   6.64998591e-03,   6.46069832e-03,
         2.65385062e-02,   2.29202807e-02,  -2.16090661e-02,
        -1.34360502e-02,   2.61625070e-02,  -2.34964839e-03,
        -1.84017904e-02,   3.88599373e-03,   1.56417936e-02,
        -1.52934750e-04,   1.15589127e-02,   8.98119435e-03,
         1.26908598e-02,  -4.89669759e-03,   1.42713981e-02,
        -1.80487782e-02,   2.69333110e-03,  -6.25108322e-03,
         2.41666264e-03,  -1.10582670e-03,   1.42429080e-02,
        -1.25287818e-02,   1.30406842e-02,   1.48210889e-02,
         1.76279061e-03,   1.43924681e-02,   5.56408335e-03,
        -7.15945708e-03,  -1.56377722e-02,   1.64522557e-03,
        -1.78745599e-03,  -1.22223496e-02,   1.38328699e-02,
        -1.81001462e-02,   1.60371214e-02,   1.05703874e-02,
         6.66485308e-03,  -2.53551006e-02,   1.24947242e-02,
         5.17511507e-03,  -4.62146709e-03,  -6.80965558e-03,
         1.39315929e-02,  -1.82878207e-02,   1.43504869e-02,
         1.10928323e-02,  -1.98373646e-02,   2.06809975e-02,
         2.96469200e-02,   1.86392199e-02,   2.04597861e-02,
         2.00877408e-03,   1.36248376e-02,   1.91889319e-03,
         1.34753669e-02,   1.08184349e-02,   2.26619244e-02,
        -1.02855414e-02,   7.30020320e-03,   3.16501297e-02,
         5.50589291e-03,   2.89425720e-02,   2.37619579e-02,
         1.71280485e-02,  -1.27583519e-02,   2.05077063e-02,
         2.04119124e-02,   1.16263954e-02,   1.46346064e-02,
         5.85743133e-03,   9.99529101e-03,   1.16783930e-02,
        -6.54601958e-03,   2.65424605e-02,  -4.37531201e-03,
         1.27394535e-02,   1.67778996e-03,   1.36281708e-02,
         7.02317152e-03,   7.96848349e-03,   1.00512486e-02,
        -5.62097086e-03,   1.02376414e-03,   1.72848534e-02,
         1.41127333e-02,   2.76359376e-02,   1.62726101e-02,
         5.60533814e-03,   2.69574169e-02,  -9.43888538e-03,
         2.76780482e-02,   2.24909000e-02,  -1.72103625e-02,
         1.42317023e-02,   1.73291359e-02,   1.06808404e-02,
         1.24940332e-02,   1.16941174e-02,   2.72928039e-03,
        -9.47475620e-03,   1.61106419e-02,  -1.66613124e-02,
        -3.71420337e-03,   1.45229530e-02,   2.88889892e-02,
        -1.71062201e-02,   1.03152981e-02,   1.42081156e-02,
        -2.79294630e-03,  -1.25057055e-02,  -9.98513680e-03,
         1.71278529e-02,   3.18431184e-02,   1.14665944e-02,
        -4.41351254e-03,  -7.73855485e-04,   7.49895722e-03,
         5.89908706e-03,   1.99801959e-02,   2.41491962e-02,
         1.29825510e-02,   5.49580809e-03,   1.29001541e-02,
        -5.98024391e-03,   1.41398292e-02,   2.43629292e-02,
         2.28980668e-02,   2.46062363e-03,  -5.31858345e-03,
         1.44787617e-02,   6.56818505e-03,   1.32515430e-02,
         1.33545799e-02,   6.79249316e-03,   1.15275439e-02,
        -9.84024256e-03,   1.47529487e-02,  -1.96045469e-02,
         1.27151087e-02,   1.24994079e-02,  -1.72211025e-02,
         6.60913065e-03,   1.53275291e-02,  -8.21600016e-03,
        -3.58468329e-04,  -2.88157016e-02,   1.52153578e-02,
         1.72341615e-02,   3.30757722e-02,   6.99271820e-03,
         5.37680974e-03,   2.00575870e-02,   7.68171391e-03,
         7.13483104e-03,   5.40424511e-03,   1.70027688e-02,
        -1.06316442e-02,   1.38168000e-02,   1.58007592e-02,
        -1.29132764e-02,   1.04797063e-02,   9.47694853e-03,
         2.08519809e-02,  -7.49436021e-03,   1.81298275e-02,
         1.18670538e-02,   1.28121702e-02,   1.59003139e-02,
        -9.02808644e-03,  -1.94841251e-02,   2.43125800e-02,
         2.53371652e-02,   1.40061732e-02,   9.79919732e-03,
        -2.26362403e-02,   1.38124097e-02,   1.28844194e-02,
         2.06724554e-02,   6.01241086e-03,   5.83591266e-03,
         1.66447405e-02,  -1.57565027e-02,   1.56301390e-02,
         3.81765258e-03,  -8.40810407e-03,   1.76331103e-02,
         1.73008982e-02,  -2.28817184e-02,  -2.65479963e-02,
         1.38581172e-02,   1.41282333e-02,   2.01248424e-03,
        -2.26970613e-02,   3.03910598e-02,   1.12092057e-02,
         1.19383531e-02,   1.32338563e-02,   2.72965757e-03,
        -4.06680722e-03,   2.92942673e-02,  -9.14409570e-03,
         1.32375630e-02,  -1.29877720e-02,  -1.73013825e-02,
         8.33702367e-03,   1.09431716e-02,   4.56882780e-03,
         7.13738939e-03,   2.14059670e-02,   2.75175460e-03,
         8.94192699e-03,   1.01351300e-02,   1.22766932e-02,
        -1.49275605e-02,  -1.78439151e-02,  -3.04101631e-02,
         1.74408481e-02,  -1.11235501e-02,   2.10847277e-02,
         7.24318111e-03,  -7.46901089e-04,   1.45109762e-02,
         1.13502974e-02,   2.33123861e-02,   8.47863406e-03,
        -1.54458517e-02,   1.38188675e-02,  -3.18578747e-03,
        -5.29266754e-03,   9.38619766e-03,   1.53528852e-02,
         6.62935665e-03,   8.96207429e-03,  -1.62810180e-02,
         6.90858113e-03,   1.38144074e-02,   1.04615567e-02,
         1.22673605e-02,   3.13889198e-02,   1.47982044e-02,
        -2.72336975e-03,   1.70629844e-02,   1.43146245e-02,
         1.72165316e-02,   1.86836030e-02,   1.52901448e-02,
         4.23061429e-03,   5.91174886e-03,  -2.07586636e-04,
        -4.39898251e-03,  -2.51706894e-02,   1.06496383e-02,
         1.11104045e-02,   1.54767912e-02,   1.71915516e-02,
         9.48040374e-03,   4.20385692e-03,  -3.00182384e-02,
         1.01823015e-02,   1.21804345e-02,   3.01084556e-02,
         2.34481785e-03,  -1.38264764e-02,  -1.44182080e-02,
         1.20852198e-02,   7.69911474e-03,   1.08812889e-02,
        -8.26067943e-03,   1.36785991e-02,  -6.41364232e-03,
         5.77819906e-03,  -1.36191696e-02,   3.90630914e-03,
         1.36258323e-02,   1.39106475e-02,   2.38136854e-02,
         3.55290323e-02,  -1.33306030e-02,   1.25730876e-02,
        -1.24972649e-02,  -1.38334371e-02,  -1.16212061e-02,
        -9.34071466e-03,  -6.12027850e-03,   5.02936915e-03,
         1.39890471e-02,   1.47941830e-02,  -1.59511790e-02,
         1.43168177e-02,   9.38594807e-03,  -9.60687175e-03,
         1.30225336e-02,  -1.03548793e-02,   1.73916351e-02,
        -9.12527274e-03,   9.72424261e-03,  -1.43946186e-02,
         7.19123473e-03,  -9.14869551e-03,   1.27801374e-02,
         1.28295375e-02,  -1.25507368e-02,   2.13480927e-02,
        -1.00132702e-02,  -1.29661178e-02,   1.07508833e-02,
        -7.78634613e-03,  -1.37963127e-02,   1.01119140e-02,
        -1.26655893e-02,   9.35607776e-03,  -2.54827482e-03,
        -1.24165034e-02,   1.62081094e-03,   1.82034578e-02,
        -7.95039535e-03,  -1.35087911e-02,  -1.05760675e-02,
         1.74024201e-03,  -1.80229861e-02,  -1.38889635e-02,
         1.30975284e-02,   1.46991499e-02,   1.41570391e-02,
         3.77656426e-03,   8.76524951e-03,  -3.07838097e-02,
         1.26033425e-02,   1.81151330e-02,  -1.33668864e-02,
         1.17386505e-02,  -1.37245590e-02,  -1.31517379e-02,
         1.59806833e-02,   1.22490060e-02,  -8.59923568e-03,
        -2.86683217e-02,   1.38011212e-02,   1.21080503e-02,
         9.48506594e-03,  -1.33629777e-02,  -1.96123193e-03,
         1.15689989e-02,   2.58007962e-02,   1.21081769e-02,
        -1.31911831e-02,  -9.01058409e-03,   6.39889715e-03,
         9.84813739e-03,  -1.29786925e-02,   1.32327890e-02,
         1.18322670e-02,  -1.50635401e-02,   1.36641972e-02,
        -3.45896534e-03,  -1.35702100e-02,  -9.45779961e-03,
        -1.82292666e-02,  -1.29211824e-02,   7.87652191e-03,
        -1.35719962e-02,  -1.11276647e-02,  -9.47231520e-03,
        -4.89402562e-03,  -2.03677197e-03,   1.27017796e-02,
        -1.32133421e-02,   1.37870712e-02,  -1.47156008e-02,
         4.94674919e-03,  -1.21440673e-02,   1.22556174e-02,
        -1.22339884e-02,   1.49103059e-02,  -6.22358173e-03,
         1.29003841e-02,  -8.28411081e-04,   1.32975327e-02,
        -1.05219502e-02,  -1.61399506e-02,   1.43320449e-02,
        -7.14517571e-03,  -4.45183367e-03,  -1.04279639e-02,
        -1.48907462e-02,   6.66944217e-03,  -6.69356249e-03,
         1.25515391e-03,   1.22368829e-02,   1.45289674e-02,
        -1.21081956e-02,  -1.42153557e-02,   1.45995179e-02,
         1.32279657e-02,   1.20337363e-02,  -1.39337536e-02,
         1.08390562e-02,  -1.52854435e-02,  -1.71700697e-02,
        -1.31814219e-02,   1.23107824e-02,   1.51055120e-02,
         1.06140105e-02,  -1.43109709e-02,  -1.28310891e-02,
         9.75322444e-03,   1.16513139e-02,  -1.28811514e-02,
         6.92782737e-03,  -7.89528619e-03,  -1.26190775e-03,
         1.49557525e-02,   1.30422069e-02,  -1.35171227e-02,
         1.22625995e-02,   2.03547664e-02,   1.00469133e-02,
        -1.39464401e-02,   1.27099361e-02,  -1.01299770e-02,
        -1.33447740e-02,   2.50310991e-02,  -1.71629731e-02,
         1.46439346e-02,  -1.47183836e-02,   1.55489100e-02,
         1.36460559e-02,  -1.02025038e-02,   1.15398271e-02,
         1.41571211e-02,   9.24998429e-03,  -1.38662774e-02,
         1.28480857e-02,   1.34973675e-02,   1.50164301e-02,
         1.87635645e-02,  -1.40140895e-02,  -1.46281300e-02,
         1.13259135e-02,  -1.30840084e-02,  -1.17999734e-02,
        -1.03188520e-02,  -1.39484368e-02,   8.74574203e-03,
        -1.51991118e-02,   1.70835219e-02,  -1.42279817e-02,
         1.47691676e-02,   1.16521884e-02,   1.35707473e-02,
         8.93866457e-03,   9.17638559e-03,   1.46190077e-02,
         8.00357945e-03,  -1.79678779e-02,  -2.36980747e-02,
        -3.53021286e-02,  -8.97241663e-03,  -1.45425294e-02,
        -1.17500229e-02,  -1.13020269e-02,   1.28064398e-02,
         1.30549446e-02,  -1.72365550e-02,  -6.58515841e-03,
        -1.40356235e-02,  -1.26305996e-02,   1.40072815e-02,
        -1.54256886e-02,   1.21852392e-02,  -1.25445621e-02,
         1.32359089e-02,   1.46428021e-02,   1.28021762e-02,
        -7.75106996e-03,  -2.86794174e-03,  -3.15291025e-02,
         1.45409312e-02,  -1.09969014e-02,   2.65845302e-02,
         1.01476116e-02,   1.05869742e-02,  -9.62856319e-03,
         1.46090752e-02,  -1.40882563e-02,  -1.50373867e-02,
         1.44077362e-02,  -1.48911979e-02,   1.96744762e-02,
         1.41816335e-02,   2.44757645e-02,   1.15523748e-02,
         9.01139155e-03,   1.48522751e-02,  -8.73201340e-03,
        -1.15535986e-02,   1.42438039e-02,   1.73090808e-02,
         9.41422954e-03,   1.13009214e-02,  -1.02919638e-02,
        -1.45307491e-02,   1.08233029e-02,   1.32914241e-02,
        -5.10244071e-03,  -1.46544650e-02,  -9.80559178e-03,
        -1.00394255e-02,  -1.35936067e-02,   1.28710764e-02,
         1.37481354e-02,   8.01813416e-03,   1.44713297e-02,
         4.59347246e-03,   2.71508228e-02,  -7.06803473e-03,
         1.38765713e-02,  -1.67782120e-02,   1.48343416e-02,
         7.68811814e-03,   1.49581805e-02,   1.30513338e-02,
        -3.09312847e-02,   1.19140809e-02,  -1.14416117e-02,
        -4.28386265e-04,   1.22158453e-02,  -1.36203431e-02,
         1.12678036e-02,   1.32519202e-02,   1.26377828e-02,
         9.96352546e-03,  -3.69903147e-02,  -1.33224912e-02,
         8.25792924e-03,   1.42703922e-02,  -1.04152504e-02,
        -1.33415684e-02,   1.50077753e-02,   1.30630834e-02,
        -7.23421387e-03,  -1.43425064e-02,  -9.22934618e-03,
        -1.42129054e-02,  -1.14384228e-02,  -1.39703006e-02,
         9.37535055e-03,   1.38155287e-02,  -9.47258342e-03,
        -1.09274955e-02,  -1.26156881e-02,  -7.14806607e-03,
        -1.38981147e-02,  -1.17349755e-02,   2.07031984e-02,
         1.22369016e-02,   8.79172981e-03,   1.48851257e-02,
        -1.49994250e-02,  -1.45254452e-02,   1.33656077e-02], dtype=float32), array([[-0.00328974,  0.02246012, -0.08706818, ..., -0.02562259,
         0.05467179, -0.01477595],
       [-0.07423209,  0.0078936 ,  0.06823192, ...,  0.0088446 ,
        -0.05211078, -0.01440754],
       [ 0.06752088, -0.05441182, -0.02742458, ..., -0.06121354,
        -0.00871164,  0.02184466],
       ..., 
       [-0.03040187,  0.05856255,  0.07748848, ..., -0.00322739,
         0.00758285,  0.04621872],
       [ 0.03456104, -0.04403439, -0.02247309, ...,  0.04302233,
        -0.00111887,  0.03849853],
       [ 0.0407554 ,  0.04155693, -0.07784435, ..., -0.0315138 ,
        -0.00737229, -0.01989854]], dtype=float32), array([[-0.05358562,  0.02234557, -0.03258665, ...,  0.02843416,
         0.05182783,  0.04589907],
       [ 0.01313775,  0.03982763,  0.05716432, ..., -0.01732077,
         0.03045404, -0.06270194],
       [-0.01839762,  0.03514469, -0.0191572 , ..., -0.0334323 ,
         0.06941389, -0.05139429],
       ..., 
       [ 0.03128752, -0.02704912,  0.00245763, ..., -0.05081901,
         0.05140352,  0.03283278],
       [-0.05223688, -0.02050319, -0.00287465, ..., -0.0493584 ,
         0.03013001,  0.02006216],
       [-0.01540775,  0.01226227,  0.02498264, ...,  0.03119842,
        -0.05883135, -0.02253828]], dtype=float32), array([  1.89075638e-02,  -8.90499540e-03,  -1.55647444e-02,
        -1.07744979e-02,  -1.17883142e-02,  -1.53512657e-02,
         9.39319283e-03,   1.13100084e-02,   1.95455998e-02,
        -8.39909632e-03,  -8.01067892e-03,  -1.41623896e-02,
        -1.14732832e-02,   1.63590268e-03,  -4.20346148e-02,
        -2.37567537e-02,  -3.72310393e-02,  -8.84906482e-03,
         1.39786573e-02,  -3.23395804e-02,  -3.19548659e-02,
        -7.39806704e-03,  -4.87807067e-03,  -1.76176038e-02,
        -1.10893380e-02,  -3.85056622e-02,  -1.30822733e-02,
        -1.31440191e-02,  -1.48928445e-02,  -3.81456129e-02,
         1.15309544e-02,  -3.84711884e-02,  -1.15226451e-02,
        -1.33351758e-02,   6.98546600e-03,  -1.24076298e-02,
        -1.44475000e-02,  -1.21570220e-02,   1.03695169e-02,
        -1.17312875e-02,  -2.42333654e-02,  -8.08101147e-03,
        -8.49924795e-03,  -3.78036462e-02,   1.50714593e-03,
        -7.68412603e-03,  -1.80694088e-02,  -1.33935092e-02,
        -1.38741732e-02,   3.74861844e-02,  -1.16894506e-02,
        -3.63980718e-02,  -1.38272410e-02,  -1.29437530e-02,
        -4.08344120e-02,  -2.49369238e-02,  -1.70012228e-02,
        -1.35924481e-02,  -1.33193675e-02,  -1.46014746e-02,
         1.50894308e-02,  -9.29251220e-03,  -1.33686652e-02,
        -1.30429044e-02,  -2.07062140e-02,  -3.92391011e-02,
         1.39145236e-02,  -2.43999474e-02,  -7.90376309e-03,
         4.57464717e-03,   1.64141820e-03,  -1.54982712e-02,
        -8.96162540e-03,  -4.33510430e-02,   3.63314264e-02,
         7.62837008e-03,  -1.12496391e-02,  -7.26336287e-03,
        -7.28096021e-03,  -3.44264843e-02,  -1.94800869e-02,
        -1.22601138e-02,   2.86741578e-03,  -3.93062383e-02,
        -2.43056118e-02,  -3.97873819e-02,  -4.26762886e-02,
        -1.33564994e-02,  -1.02088600e-02,  -1.38857318e-02,
         2.25127097e-02,   1.49664758e-02,  -2.84598581e-02,
         3.45230103e-02,  -1.05692744e-02,  -1.22049255e-02,
        -3.44024748e-02,  -1.23812500e-02,  -1.38293784e-02,
        -3.11576705e-02,   2.80765779e-02,  -1.70161147e-02,
        -3.66777671e-03,  -9.20624658e-03,   3.22323404e-02,
        -3.69676799e-02,   1.91296265e-02,  -1.05517190e-02,
         1.59076732e-02,  -1.84684284e-02,   1.61744058e-02,
         5.22660650e-03,   2.56183594e-02,  -9.15955193e-03,
        -2.03074049e-02,   1.14116920e-02,  -1.20989764e-02,
         1.95830800e-02,   8.03781953e-03,  -1.03208916e-02,
        -9.92665906e-03,  -4.34580967e-02,   5.57997869e-03,
         1.72556359e-02,  -3.22448798e-02,  -1.11311423e-02,
         1.37662580e-02,  -1.07260952e-02,  -1.56463496e-02,
        -1.15092276e-02,   3.73937972e-02,   3.93243507e-02,
         2.17308328e-02,  -3.21298726e-02,  -3.06759384e-02,
        -3.27536091e-02,  -3.64007019e-02,  -8.62226915e-03,
        -2.50776634e-02,  -4.23832424e-02,  -1.62432585e-02,
         2.34596413e-02,   8.07558931e-03,  -8.19662400e-03,
         2.70640217e-02,  -2.81280763e-02,  -8.10276344e-03,
        -9.74116102e-03,  -9.51503124e-03,  -1.37103396e-02,
        -1.20575009e-02,  -1.22721223e-02,   2.43610796e-03,
         6.73608901e-03,  -6.45181956e-03,   2.69436408e-02,
        -3.83677967e-02,   1.10664489e-02,   7.69316684e-03,
         1.36109088e-02,  -3.73947248e-02,  -1.47366561e-02,
        -9.41980537e-03,  -1.30171189e-02,  -1.31491963e-02,
        -7.48682627e-03,  -8.55659042e-03,  -1.37618463e-02,
        -3.86854261e-02,  -9.61053465e-03,   1.07505536e-02,
        -2.97941687e-03,   3.43676866e-03,  -8.12480878e-03,
        -7.23493472e-03,  -8.56214110e-03,   3.39378491e-02,
        -1.69727597e-02,  -1.20110661e-02,  -5.82191977e-04,
        -1.35255605e-02,  -3.35753821e-02,   1.94030944e-02,
         1.47344721e-02,  -1.91909671e-02,  -1.74750406e-02,
         3.32585201e-02,  -1.15676979e-02,   1.89519431e-02,
        -3.07178088e-02,   6.68608071e-03,  -2.25145519e-02,
         1.08320992e-02,  -1.36005469e-02,  -1.00580184e-02,
        -8.98825284e-03,  -8.52599461e-03,   7.60396291e-03,
        -1.03119398e-02,   2.21490823e-02,  -3.90582420e-02,
        -1.50806755e-02,  -1.02496594e-02,   4.51237569e-03,
        -1.34345675e-02,   2.46579777e-02,   7.71375000e-03,
        -4.89511120e-04,  -8.13887734e-03,   1.22365681e-02,
        -9.84737184e-03,  -9.60546546e-03,  -9.37095564e-03,
         1.59536973e-02,  -1.35082863e-02,  -3.42529528e-02,
        -1.20692654e-02,   3.39945666e-02,   1.80939510e-02,
         2.80198529e-02,   2.17195377e-02,   1.42229684e-02,
        -1.33387940e-02,  -9.70835984e-03,   2.12849677e-02,
         1.12795448e-02,  -5.79024479e-03,  -2.89258417e-02,
        -1.20791448e-02,   1.16944667e-02,  -1.21668521e-02,
        -2.98662055e-02,   8.39528348e-03,   7.88641628e-03,
        -1.37439547e-02,  -1.30967982e-02,   6.74506696e-03,
         1.52118467e-02,   9.81959235e-03,   7.16835540e-03,
        -3.53304110e-02,  -3.27355675e-02,  -3.72806937e-02,
        -1.47163887e-02,  -1.05611933e-02,  -4.09571528e-02,
        -2.36761682e-02,  -1.36935031e-02,  -9.92488675e-03,
        -1.24692749e-02,  -6.74523041e-03,  -1.28016630e-02,
        -1.40341232e-02,  -1.43956998e-02,  -1.84830409e-02,
         2.35344693e-02,  -1.20900841e-02,   7.85369612e-03,
        -8.61334428e-03,  -9.64133535e-03,  -4.08062898e-02,
        -4.09232676e-02,   3.11142951e-03,  -8.70734826e-03,
        -4.36119456e-03,  -2.15223506e-02,  -1.14479763e-02,
         6.05064491e-03,  -9.23554134e-03,   7.92761147e-03,
         1.02050696e-02,  -1.16144987e-02,   1.07161170e-02,
        -9.80819203e-03,  -1.63167398e-02,  -1.26836020e-02,
        -1.15599474e-02,  -9.26712714e-03,  -1.08228950e-02,
         1.78815145e-02,  -1.13912849e-02,  -1.12946602e-02,
         2.00564284e-02,  -8.65140650e-03,  -1.00717703e-02,
         2.02036295e-02,  -1.13720680e-02,  -5.02691139e-03,
        -1.09866215e-02,  -1.18835689e-02,   3.82981566e-03,
         1.94113106e-02,  -3.89521532e-02,   2.95942351e-02,
        -1.18519310e-02,   1.57145802e-02,  -1.02014355e-02,
         1.20443944e-02,  -9.58864484e-03,  -3.92162576e-02,
         2.06665695e-03,  -8.24491400e-03,   6.18908182e-03,
         9.92632937e-03,   2.67349370e-02,   9.19852033e-03,
         1.03216683e-02,   1.28816720e-02,   5.87435579e-03,
        -1.82986334e-02,   1.14554986e-02,   2.41428092e-02,
         1.52916312e-02,   2.78211106e-02,  -1.35955000e-02,
         2.31111189e-03,   1.23692676e-02,  -7.91934319e-03,
         3.39216250e-03,   1.38303358e-02,  -9.68728960e-03,
         1.87413823e-02,   2.63987668e-03,   1.23706479e-02,
         3.40853892e-02,   1.25089493e-02,   9.79605597e-03,
         9.66149103e-03,   2.68187430e-02,   7.98658840e-03,
         1.18036410e-02,   1.99420913e-03,   4.05596243e-03,
         2.61525661e-02,   9.00055189e-03,   5.58877038e-03,
         9.92388651e-03,   4.24693601e-04,  -1.11345192e-02,
        -6.97106775e-03,   1.15354266e-02,   1.72577687e-02,
        -1.34334033e-02,  -1.34947142e-02,   1.58393960e-02,
        -1.19519122e-02,  -1.91232674e-02,   1.87592749e-02,
         1.09095387e-02,   1.50741376e-02,   9.01870336e-03,
        -3.91232828e-03,   1.83563796e-03,  -1.07175121e-02,
        -1.30361645e-02,   1.09539460e-02,   1.98249817e-02,
         1.66685674e-02,   7.39492290e-03,  -3.14624980e-03,
         9.50703863e-03,   3.26075181e-02,   1.19770113e-02,
         2.32944787e-02,  -3.28552024e-03,   1.82917304e-02,
        -3.19469342e-04,   2.83612832e-02,   1.24806091e-02,
        -7.57362787e-03,   2.55136448e-03,   1.64301451e-02,
         3.07941195e-02,   1.75237451e-02,   2.49967668e-02,
         1.26421051e-02,  -5.62906079e-03,  -1.66594703e-02,
         1.07926484e-02,   1.12865744e-02,   1.21821053e-02,
         1.52404970e-02,  -1.82389282e-02,   1.29356822e-02,
        -2.70090830e-02,  -5.82985114e-04,   6.54244912e-04,
         1.35895805e-02,   1.15871225e-02,   8.19795486e-03,
         7.12258834e-03,  -1.59085542e-02,   1.28643531e-02,
         1.27377994e-02,   2.87013538e-02,   8.32511205e-03,
        -1.31105985e-02,   7.74157001e-03,   1.23448297e-02,
         1.89809874e-02,   1.32779535e-02,   1.00381756e-02,
         2.53832452e-02,   1.66296419e-02,  -6.49747625e-03,
         1.10717183e-02,   2.45052688e-02,   3.64332013e-02,
        -2.38387566e-02,  -8.90949648e-03,   5.98578295e-03,
        -2.75120023e-03,  -1.25936996e-02,   1.74582191e-02,
         5.92855178e-03,   1.22556575e-02,  -1.30051756e-02,
        -1.19594471e-04,   9.66767035e-03,   1.45927044e-02,
         3.43086198e-02,   2.47070193e-02,  -1.25485845e-02,
         1.30145093e-02,   1.21847205e-02,   5.50105609e-03,
         2.37878375e-02,  -1.00208074e-02,   9.27880872e-04,
         2.10846774e-02,  -3.62983868e-02,   2.90210694e-02,
         1.05923973e-02,   4.50102845e-03,   1.41774593e-02,
         1.64598096e-02,   9.60329827e-03,   1.93702634e-02,
        -5.11304522e-03,   1.39330430e-02,   1.01546440e-02,
         1.78289935e-02,  -9.46716685e-03,  -5.72084449e-03,
         4.29775706e-03,   1.51398415e-02,  -5.80675993e-03,
        -1.70172043e-02,  -1.44281769e-02,  -2.70359274e-02,
         1.06303645e-02,   9.90768429e-03,   2.59542037e-02,
        -9.66183143e-04,   7.83011783e-03,   1.09298658e-02,
         1.30794141e-02,   2.06326712e-02,   1.21401045e-02,
         1.20706381e-02,   7.42108608e-03,   3.09675764e-02,
         1.04043242e-02,   3.43161216e-03,  -9.73135978e-03,
        -2.89072450e-02,   1.37138665e-02,   8.89847148e-03,
         8.25670268e-03,  -7.16201402e-03,   6.73222542e-03,
         3.17430720e-02,   1.05344849e-02,   8.75603314e-03,
        -1.52974231e-02,  -1.18390210e-02,   2.89858263e-02,
         1.44759612e-02,   1.05238976e-02,   2.07753759e-02,
         2.27144943e-03,   2.99430955e-02,   1.82558894e-02,
         6.50808972e-04,   8.61414988e-03,   5.73936733e-04,
         1.55629097e-02,  -3.27839479e-02,   2.49161012e-02,
        -2.63706874e-03,  -1.36404270e-02,   1.49790924e-02,
         8.57290719e-03,   1.71180796e-02,  -6.28148252e-03,
         9.15934052e-03,   2.78741922e-02,   1.02612535e-02,
         7.34119257e-03,   3.03744711e-02,   5.13871387e-03,
         2.31518392e-02,  -1.21493675e-02,  -6.06680335e-03,
         6.97729317e-03,   1.34267379e-02,  -2.26485543e-02,
        -1.47239165e-02,  -8.40857625e-03,  -1.07630379e-02,
         1.50471162e-02,   1.08597511e-02,  -1.02067860e-02,
        -1.26949726e-02,   1.41094783e-02,  -1.11709454e-03,
         1.73327103e-02,  -2.32209638e-02,  -1.08281523e-03,
        -8.22285749e-03,  -1.54933729e-03,   2.38981415e-02,
         3.25880013e-02,   1.96828004e-02,   1.44228786e-02,
         1.43651450e-02,  -1.64051000e-02,   1.18200490e-02,
        -1.04015330e-02,  -6.70669042e-03,   2.46746559e-02,
         1.27968192e-02,  -1.15710041e-02,   1.16657438e-02,
        -5.79579175e-03,   1.50942244e-02,  -1.28638996e-02,
         1.02729741e-02,   6.96846377e-03,   1.59011390e-02,
         1.13733001e-02,   2.13681422e-02,  -1.14335008e-02,
        -5.45438984e-03,   9.29122977e-03,   1.28613897e-02,
         1.77988634e-02,   1.70774016e-04,   1.25830872e-02,
         1.08776409e-02,   2.20746025e-02,  -4.47887601e-03,
        -4.37228102e-03,   2.78645102e-02,   1.31216114e-02,
         1.02627315e-02,  -7.19801150e-03,   1.11326491e-02,
        -1.23822203e-04,   1.63891725e-02,  -7.32110022e-03,
         7.56114628e-03,   3.30176726e-02,   1.98773090e-02,
        -1.19511839e-02,   8.12975504e-03,   8.00392497e-03,
         8.87993257e-03,   2.28100661e-02,   9.41040926e-03,
         9.76307690e-03,   2.47521438e-02,   7.56893819e-03,
         1.29660377e-02,  -1.24185327e-02,   2.92981882e-02,
        -1.25066880e-02,   3.32973450e-02,   2.80250944e-02,
         3.71502666e-03,   1.23251043e-02,   8.32641684e-03,
         1.20736528e-02,   1.08572294e-03,  -2.24578548e-02,
         9.08802077e-03,   1.39649604e-02,  -6.32821489e-03,
        -1.37581704e-02,   8.76959320e-03,   2.08889376e-02,
         1.23123573e-02,   7.02057034e-03,   1.47603946e-02,
         3.42332572e-02,  -3.48203331e-02,   2.89852358e-02,
        -1.40679050e-02,   8.51312943e-04,  -2.17059650e-03,
        -1.26235448e-02,   1.11548342e-02,  -1.36896325e-02,
         1.87334549e-02,  -1.44310528e-02,   2.09401157e-02,
        -6.83330698e-03,   6.95038866e-03,  -1.60294734e-02,
        -1.31840650e-02,   1.17696850e-02,  -1.27029717e-02,
         1.17543563e-02,  -4.72197449e-03,  -1.38869043e-02,
         8.65770224e-03,   2.05973089e-02,   1.01713371e-02,
         4.07375861e-03,   1.14589483e-02,  -1.46348299e-02,
        -1.31837856e-02,  -1.66554432e-02,  -1.24789709e-02,
        -1.10125607e-02,   2.33795829e-02,   1.36309741e-02,
        -1.20803537e-02,  -1.36603210e-02,  -1.01462444e-02,
        -9.42643266e-03,   1.38466964e-02,  -1.52944000e-02,
         1.53515756e-03,   1.09320739e-02,   1.24895601e-02,
         4.07420471e-02,   1.46703199e-02,  -8.26886948e-03,
         1.30140921e-02,  -4.55072382e-03,  -2.61647757e-02,
        -1.19842552e-02,  -4.10382710e-02,   4.45652381e-03,
        -1.02696354e-02,   8.88336077e-03,  -1.40250893e-02,
        -1.39637617e-02,  -6.95457961e-03,   1.45855080e-02,
         1.71741676e-02,  -9.81447194e-03,   1.43003501e-02,
         1.24460012e-02,  -1.41227385e-02,  -3.80978483e-04,
        -2.91169621e-02,  -1.01481406e-02,  -1.49150360e-02,
         1.45246061e-02,  -1.10279229e-02,  -1.59727279e-02,
         1.37517480e-02,  -1.38231795e-02,   1.23142842e-02,
         1.08930785e-02,   2.93333977e-02,  -9.63178929e-03,
        -1.37419561e-02,  -8.24180804e-03,  -1.61677357e-02,
        -1.49088940e-02,   1.60770398e-02,   7.97348004e-03,
        -3.14807072e-02,   1.32674268e-02,  -1.42845344e-02,
        -2.30548714e-04,  -1.13938013e-02,  -1.25870695e-02,
        -2.70300824e-02,   6.43572351e-03,  -2.05724109e-02,
        -1.28400931e-02,  -2.14656517e-02,   1.35870678e-02,
        -1.43985227e-02,   9.19438992e-03,  -2.79548336e-02,
        -8.15773383e-03,  -1.25343222e-02,   1.65565945e-02,
         1.07834279e-03,   1.20805306e-02,  -2.92161144e-02,
         6.93702931e-03,   1.45184426e-02,   1.42590161e-02,
         1.33890370e-02,  -1.15204556e-02,   1.21330954e-02,
         9.48983617e-03,  -1.00296549e-02,   1.96767808e-03,
        -2.50632986e-02,  -4.69440245e-04,  -1.70375351e-02,
         1.36290956e-02,   1.36671709e-02,  -9.32920631e-03,
         1.16940858e-02,   7.94987753e-03,  -9.65499412e-03,
         7.24507635e-03,   1.11078145e-02,   1.41764600e-02,
        -9.32329521e-03,  -3.20637366e-03,  -9.05059744e-03,
        -1.07597578e-02,   1.25565762e-02,  -4.88266768e-03,
        -1.29053667e-02,   1.37704443e-02,  -1.38081471e-02,
         8.89838114e-03,  -1.50680263e-02,   4.96542826e-03,
         1.19085824e-02,   7.76098901e-03,   1.03963083e-02,
         4.16751858e-03,   9.38456506e-03,   1.07661402e-02,
        -2.59182341e-02,   1.54793356e-02,   1.46996295e-02,
         1.24095380e-02,  -1.46124316e-02,   1.44498395e-02,
        -8.87151901e-03,  -6.03786320e-05,   1.40746236e-02,
         1.01159280e-02,   1.26960436e-02,  -1.02985688e-02,
         1.11667970e-02,   7.08325300e-03,  -1.33609436e-02,
        -1.20329084e-02,   3.56661752e-02,   5.97058702e-03,
         1.63461431e-03,   1.16806887e-02,  -2.21646694e-03,
        -7.22463103e-03,  -4.25036205e-03,  -1.02149518e-02,
         6.46567438e-03,   1.56187573e-02,  -1.27184968e-02,
         4.52882890e-03,  -2.91724335e-02,   1.48551045e-02,
        -1.04573173e-02,  -1.24686686e-02,  -1.50859728e-02,
         1.22111654e-02,   1.33656505e-02,  -7.33674504e-03,
        -1.82435475e-02,  -1.30848968e-02,  -1.98114756e-02,
        -6.38317456e-03,  -1.41726723e-02,   9.67779569e-03,
        -1.13251628e-02,   1.39805637e-02,   2.29140408e-02,
        -1.86388046e-02,  -1.42333917e-02,   1.25960791e-02,
         2.74708029e-03,   1.22461859e-02,  -1.29508628e-02,
         3.82433855e-03,   1.19814435e-02,  -1.08072413e-02,
         1.15413507e-02,  -4.45580663e-04,   1.31318737e-02,
        -1.36246358e-03,  -1.45756025e-02,  -1.65245906e-02,
        -1.40138976e-02,  -1.37682790e-02,  -1.04172481e-02,
        -1.36577720e-02,  -6.93374360e-03,  -1.36538288e-02,
         1.32902386e-02,  -4.69073979e-03,   3.87422595e-04,
         1.40045751e-02,   1.73919927e-03,   7.12224841e-03,
         6.90956507e-03,  -1.11156153e-02,   2.30407785e-03,
        -1.21490229e-02,  -1.16801811e-02,   8.00334755e-03,
        -9.16600600e-03,   1.36483964e-02,  -1.46981971e-02,
         6.38591452e-03,   4.55021346e-03,   4.59622638e-03,
        -1.42856524e-03,  -1.40032256e-02,  -9.18401498e-03,
        -1.20245470e-02,   1.96733437e-02,  -1.26187010e-02,
        -3.81761836e-03,  -2.58363364e-03,   2.36344077e-02,
         1.49721466e-02,   3.42256506e-03,  -1.22846942e-02,
        -2.18270440e-03,  -1.18511859e-02,   9.47841816e-03,
        -1.85275283e-02,   1.10754538e-02,   1.52524943e-02,
        -1.23500098e-02,  -7.85224047e-03,  -4.77707363e-04,
        -1.44075146e-02,   1.12001300e-02,  -3.41729634e-02,
         2.46366160e-03,   1.44664608e-02,   1.31587349e-02,
        -1.10341460e-02,  -1.57022886e-02,   1.34198563e-02,
        -1.66969430e-02,  -1.73479076e-02,  -1.37483394e-02,
         1.41275637e-02,   1.39448857e-02,  -1.39048323e-02,
        -1.26601551e-02,  -3.47377211e-02,   7.66698364e-03,
         1.39906835e-02,  -1.48309376e-02,  -1.33006759e-02,
        -1.56754907e-02,  -9.18937940e-03,   7.72036053e-03,
         1.49526317e-02,  -5.08014206e-03,  -1.15168532e-02,
         1.39028840e-02,  -1.39113739e-02,  -1.38284201e-02,
         1.02958651e-02,  -1.28164794e-02,   4.31014411e-03,
         9.00228135e-03,  -2.16886550e-02,  -2.71279570e-02,
         2.24131737e-02,   3.65020409e-02,  -3.99493519e-03,
         1.19567458e-02,   1.19141378e-02,  -1.40092066e-02,
         1.23155620e-02,  -2.66386283e-04,  -1.44709786e-02,
        -4.55417903e-03,  -1.40687609e-02,   4.19718199e-05,
         1.44902375e-02,   1.38179213e-02,  -6.43530395e-03,
         1.00952704e-02,  -2.31314134e-02,  -2.36987565e-02,
        -1.32738780e-02,   1.42844878e-02,   1.60096474e-02,
         4.35055792e-03,   8.86272453e-03,  -1.21792471e-02], dtype=float32), array([[ -3.89292240e-02,  -1.07407764e-01,   7.17052817e-02, ...,
         -5.24032265e-02,   7.37051293e-02,   5.05535640e-02],
       [ -1.59904994e-02,   3.16024870e-02,  -7.76782483e-02, ...,
         -1.02169156e-01,  -1.33933514e-01,  -5.21111302e-02],
       [  6.45410195e-02,   1.14197925e-01,   3.85986418e-02, ...,
          3.07968520e-02,   8.21175948e-02,   2.15418916e-02],
       ..., 
       [ -4.49883305e-02,   2.55644904e-03,  -8.46419856e-02, ...,
          1.32592851e-02,  -1.63752269e-02,  -4.51181009e-02],
       [  1.48590123e-02,  -4.39990014e-02,  -5.75018078e-02, ...,
         -4.82453145e-02,  -5.51650785e-02,   5.64177036e-02],
       [  3.16160060e-02,   1.18971884e-01,  -3.78073928e-05, ...,
         -1.17795160e-02,  -1.52760506e-01,  -8.94455984e-02]], dtype=float32), array([ -8.45745672e-03,  -4.93746661e-02,  -2.23958818e-03,
        -7.36246305e-03,  -1.66361779e-02,  -6.57276774e-04,
        -1.31230028e-02,  -1.92647967e-02,  -3.63775752e-02,
         3.05617298e-03,  -1.75981391e-02,   3.91888461e-05,
         2.80748773e-02,  -8.23942013e-03,   2.55370792e-03,
        -6.01029489e-03,  -5.47949458e-03,  -1.94893852e-02,
        -6.32624375e-03,  -2.21259501e-02,  -1.29077639e-02,
         4.74491483e-03,   1.91422943e-02,  -2.94760056e-03,
         6.09520124e-04,  -1.41866896e-02,  -1.42024253e-02,
        -1.48121892e-02,  -3.24773020e-03,   2.93120579e-03,
        -1.27869872e-02,  -4.20063548e-03,  -3.20823467e-03,
        -3.45300809e-02,  -1.89376231e-02,  -9.69096611e-04,
        -1.27806105e-02,  -1.34026771e-02,  -3.91650796e-02,
        -1.56517420e-02,  -2.35067792e-02,  -8.64662416e-03,
        -2.40389421e-03,  -2.09406111e-02,   4.84916469e-04,
        -8.94230139e-03,  -9.64456645e-04,  -1.95808988e-02,
        -4.85591358e-04,  -3.09950253e-03,   1.30762476e-02,
        -9.68123134e-03,  -7.64474599e-03,  -1.86055573e-03,
         3.79256764e-03,  -2.56610080e-03,  -7.96219427e-03,
         3.85339148e-02,  -3.18557932e-03,  -1.26883090e-02,
        -5.87578071e-03,  -5.97241754e-03,  -5.41824894e-03,
        -9.02536139e-03,  -3.34167155e-03,  -2.80904863e-03,
        -9.29892156e-03,  -7.88876787e-04,  -5.49471145e-03,
        -8.79864953e-03,  -3.06997336e-02,  -2.83238897e-03,
         1.34232864e-02,   1.27888387e-02,  -1.25019150e-02,
        -1.22443298e-02,   9.11543379e-04,  -1.54005259e-03,
        -3.56934182e-02,   3.50821111e-03,  -5.17139118e-03,
        -4.30771429e-03,  -1.97295509e-02,  -2.78081112e-02,
        -2.33004037e-02,  -4.03622072e-03,  -2.88253487e-03,
        -7.74831336e-04,  -1.62775889e-02,  -4.53475630e-03,
        -1.49513045e-02,  -2.02890369e-03,   1.47388969e-03,
        -3.42354365e-03,   1.15167967e-03,  -1.94031168e-02,
        -4.31977998e-04,  -1.05604082e-02,  -1.67534535e-03,
        -4.47015315e-02,   9.20948223e-04,  -1.33505149e-04,
         6.61836751e-03,   3.10402643e-03,  -1.16593549e-02,
        -3.64714079e-02,  -5.66075975e-03,  -6.67920744e-04,
        -4.17376542e-03,  -4.81181685e-03,  -5.82934404e-03,
        -6.94717327e-03,  -2.78814863e-02,  -5.37393242e-03,
        -2.36154199e-04,   2.21353420e-03,  -2.40604691e-02,
        -1.21311015e-02,  -1.09415967e-02,  -3.61187709e-03,
        -1.06112873e-02,  -1.05044199e-02,  -9.54856072e-03,
        -5.01996614e-02,  -3.56257986e-03,  -1.13365538e-02,
         1.45538300e-02,  -8.10190197e-03,  -2.76903119e-02,
         9.68713965e-03,  -2.82846279e-02,  -5.66791520e-02,
        -4.25643958e-02,  -2.76703015e-03,  -3.43058184e-02,
        -1.52288312e-02,  -2.22782977e-03,   1.69110894e-02,
        -1.85085356e-03,  -7.16607226e-03,  -2.68656164e-02,
        -5.94613003e-03,  -3.49090062e-02,  -4.80928458e-03,
        -1.38548296e-03,  -1.30754309e-02,   6.72077818e-04,
        -3.47127672e-03,  -1.32955834e-02,  -3.86121287e-03,
         1.45654324e-02,  -2.39899158e-02,  -3.77031602e-03,
        -1.88870411e-02,  -1.52231930e-02,  -1.13485139e-02,
        -9.24676843e-03,  -2.50103348e-03,  -2.58461246e-03,
        -8.54371116e-03,  -1.44384019e-02,  -1.25236465e-02,
        -1.18026333e-02,  -1.81679931e-02,   1.12599996e-03,
        -7.95538723e-03,   2.93359114e-03,  -9.51529801e-05,
        -2.30189003e-02,   7.38636497e-03,  -7.34316418e-03,
        -2.11875290e-02,  -4.34676334e-02,  -6.56791870e-03,
         1.30923314e-03,  -9.33334045e-03,  -1.42634725e-02,
         2.05262238e-03,  -1.46424277e-02,   1.43031438e-03,
        -1.78884920e-02,  -1.48267895e-02,   2.45428388e-03,
        -2.19716653e-02,   2.01622234e-03,  -5.10884356e-03,
        -3.04351337e-02,  -5.26757166e-03,   1.43074465e-03,
        -2.83855549e-03,  -4.28349152e-03,  -2.96887523e-03,
        -1.14553887e-02,  -1.01474090e-03,  -3.65001187e-02,
        -1.09447343e-02,  -7.08250981e-03,  -1.01016788e-03,
        -4.02937410e-03,  -7.50515657e-03,   2.90121394e-03,
        -8.02487228e-03,   6.74041454e-04,  -1.29159717e-02,
        -4.35380591e-03,  -4.48404998e-03,  -5.69084100e-03,
        -4.76203347e-03,   1.34353118e-03,  -3.55588947e-03,
        -1.35897659e-02,  -4.18549683e-03,  -3.29689868e-02,
        -2.39646621e-02,  -2.67540347e-02,  -6.28666952e-03,
        -3.29361320e-03,   5.28496923e-03,  -3.21281254e-02,
        -2.74905115e-02,  -1.32082710e-02,  -7.39705225e-04,
        -2.98622418e-02,   1.40851662e-02,   4.96160239e-04,
        -1.05266823e-02,  -1.36159491e-02,  -6.85895421e-03,
        -5.20038302e-04,  -3.73464972e-02,   9.71852429e-03,
         4.22967132e-03,  -2.26206100e-03,  -1.51310759e-02,
        -3.09993140e-02,  -8.85220431e-03,   1.23297761e-03,
        -3.59161831e-02,   2.55545019e-03,  -2.33400567e-03,
        -7.94018211e-04,  -1.21429404e-02,  -7.14472914e-03,
         5.17923431e-03,  -1.04707316e-03,  -7.29392329e-03,
        -5.60712535e-03,  -5.26644057e-03,   8.57561012e-04,
        -2.14579469e-03,  -9.73459706e-03,  -9.83463041e-03,
        -4.09070263e-03,  -4.54943329e-02,  -4.34338767e-03,
        -6.68968260e-03,  -4.72309534e-03,  -3.25632631e-03,
        -2.26504244e-02,  -3.40617262e-03,  -1.33762127e-02,
        -6.11965684e-03,  -1.84059760e-03,  -1.18231550e-02,
        -2.80830804e-02,   3.06599345e-02,  -1.39047876e-02,
        -1.29773654e-03,  -1.96813829e-02,  -1.90456454e-02,
        -4.96061519e-04,  -2.41401209e-03,   1.68175518e-03,
        -1.02660395e-02,  -2.25918670e-03,  -1.24353543e-02,
        -2.71214880e-02,  -1.73577704e-02,  -7.77295965e-04,
        -1.15140481e-03,  -2.99035804e-03,  -3.03541799e-03,
        -8.06060620e-03,  -2.25194748e-02,   3.79544403e-03,
        -1.24060698e-02,  -1.11898165e-02,  -2.47560591e-02,
         1.31525695e-02,  -7.77539145e-03,  -8.04814976e-03,
        -2.74463324e-03,  -1.48464143e-02,  -9.12205689e-03,
        -1.40519431e-02,  -1.36782713e-02,  -3.92650589e-02,
        -7.17415474e-03,  -6.36956422e-03,  -3.55505161e-02,
         5.69671057e-02,  -8.59483052e-03,   5.60029820e-02,
         4.12937813e-02,   6.98255450e-02,   6.30375519e-02,
         1.19323090e-01,  -2.52465121e-02,   2.29575429e-02,
        -1.77992843e-02,  -3.60617861e-02,  -1.00843534e-01,
         7.57048354e-02,  -1.21178040e-02,   4.69874255e-02,
        -3.98417115e-02,   6.21745102e-02,  -4.60101813e-02,
        -8.49131122e-02,   8.86376649e-02,   8.19848776e-02,
        -7.41359638e-03,  -3.04754497e-03,  -1.41219832e-02,
         8.18344578e-02,  -3.26781459e-02,   1.21292099e-03,
         7.51710683e-02,   1.14592016e-02,  -3.19746248e-02,
         3.15011814e-02,  -7.73060098e-02,   7.81351849e-02,
         8.56789500e-02,  -4.80087101e-02,   3.77607048e-02,
        -3.80477570e-02,  -2.62339087e-03,  -5.60205653e-02,
        -1.83009692e-02,   5.71062826e-02,   7.71440417e-02,
        -3.50987688e-02,  -1.55557878e-02,   8.67376104e-02,
        -6.43655881e-02,   4.37966250e-02,   6.28919527e-02,
        -4.49848454e-03,  -1.47421416e-02,  -1.04904966e-02,
        -3.33742015e-02,   8.58716443e-02,   7.81651586e-02,
        -8.42299964e-03,   1.02281924e-02,   5.36849722e-02,
         6.95547685e-02,   1.08950604e-02,   7.73055404e-02,
        -5.25379702e-02,  -6.59916131e-03,  -4.25973237e-02,
         6.46230280e-02,   1.92270633e-02,   7.43910074e-02,
         4.88153175e-02,   4.00157124e-02,   4.74223569e-02,
        -1.44342268e-02,  -3.34267430e-02,  -3.99911962e-02,
         3.44822407e-02,  -3.68726067e-03,   6.73900619e-02,
        -3.36651430e-02,  -1.10300332e-02,   6.27987459e-02,
         1.02113895e-02,   3.99556980e-02,   7.92635232e-02,
        -1.95619185e-03,   6.35381266e-02,   7.88267851e-02,
         5.58018498e-02,   2.99629886e-02,  -9.23609659e-02,
         6.94150403e-02,   1.41312862e-02,  -4.11919970e-03,
        -8.62720015e-04,   5.64366542e-02,   7.74384290e-02,
         3.79507476e-03,   7.75376484e-02,  -8.49654153e-02,
         1.82735119e-02,   1.11164656e-02,   2.63617560e-02,
         2.95214746e-02,  -2.06318609e-02,   8.45806822e-02,
        -9.47669521e-02,  -5.54745272e-02,  -1.76868513e-02,
        -8.73307586e-02,   7.07149655e-02,  -6.85917437e-02,
        -1.62858535e-02,  -2.06080209e-02,   1.39236590e-03,
        -4.56525385e-02,  -8.67419764e-02,  -6.83899447e-02,
         3.39100137e-02,   1.06895022e-01,  -5.27549237e-02,
        -2.76476089e-02,   7.25205392e-02,   5.49296886e-02,
         9.35698301e-02,  -2.95621492e-02,   7.38407299e-03,
         1.92914419e-02,  -7.55694602e-03,   4.25048609e-04,
        -6.38274336e-03,   3.31799239e-02,   9.64749679e-02,
        -2.87034828e-02,   1.27148563e-02,   6.17250763e-02,
         8.41536745e-02,   1.08220540e-02,   1.57085247e-03,
         5.80979884e-02,   1.38360243e-02,   7.09858984e-02,
        -2.81735417e-02,   3.26989517e-02,  -1.87194068e-02,
         6.64993152e-02,   6.41832873e-02,  -4.13644426e-02,
         7.04175606e-02,   1.05883097e-02,   5.03954925e-02,
         5.40805273e-02,   6.11000210e-02,  -2.95717791e-02,
        -5.70170842e-02,   1.62655432e-02,   2.18471978e-02,
         6.76977560e-02,  -7.18276668e-03,   5.79325557e-02,
        -2.93333363e-02,   4.59725745e-02,   6.62814826e-02,
        -6.60892902e-03,   7.41965771e-02,   4.15670453e-03,
        -3.95026356e-02,   2.36416534e-02,   5.29235080e-02,
        -3.35840741e-03,   7.76054710e-02,   6.29666299e-02,
         2.54460573e-02,   7.24793077e-02,   1.39850471e-02,
         1.76454514e-01,  -1.61421709e-02,   7.93226063e-02,
        -9.28356275e-02,   7.22790509e-02,   6.70630634e-02,
         6.31773621e-02,   4.84191906e-03,   3.66886668e-02,
        -7.57297128e-02,   2.14395393e-02,   4.00844915e-03,
         8.39912221e-02,   3.23793069e-02,   6.83040917e-02,
         4.29557040e-02,  -5.81678795e-03,   7.03224621e-04,
        -6.63786829e-02,   8.21918100e-02,   9.16179419e-02,
         5.51567897e-02,   1.16526261e-01,  -4.92486209e-02,
         3.97493951e-02,   2.70992052e-02,  -1.46633778e-02,
        -2.34724674e-02,  -3.86569351e-02,   4.97883894e-02,
         2.32450329e-02,   5.27232606e-03,  -1.50905522e-02,
         3.16246040e-02,  -2.64040492e-02,   6.32279962e-02,
         8.17235857e-02,  -3.87105066e-03,  -2.61736400e-02,
         1.17249079e-02,   6.42091706e-02,   7.33644739e-02,
         1.33419633e-02,   4.20529917e-02,   6.46327063e-02,
         6.85100853e-02,  -3.15587521e-02,  -1.17675541e-02,
         2.44485494e-02,  -8.13869834e-02,  -4.67370935e-02,
         1.18852062e-02,  -1.65625028e-02,   1.10449553e-01,
         6.72773197e-02,   2.06665341e-02,  -6.46806182e-03,
         2.17555859e-03,   2.72429492e-02,  -1.89896859e-02,
        -6.63010180e-02,  -3.96524370e-02,   7.17837438e-02,
         8.63047540e-02,   5.48558161e-02,  -7.82416761e-02,
         9.26873088e-02,  -3.08043938e-02,  -4.45430316e-02,
        -2.37271264e-02,   6.68655783e-02,  -1.71844102e-02,
         3.63864773e-03,   8.47855732e-02,   4.47271578e-02,
         1.84692740e-02,   6.23174496e-02,  -6.84467778e-02,
         1.48807839e-01,   5.60857952e-02,   1.83657214e-01,
         1.81489307e-02,  -9.10800174e-02,   8.54007062e-03,
         6.67230189e-02,  -4.63013388e-02,  -4.09652069e-02,
         7.97859281e-02,  -1.04510495e-02,   1.02469567e-02,
        -8.99312273e-02,  -1.03632100e-02,   7.05946237e-03,
         5.76758608e-02,  -3.05160694e-02,  -3.95405404e-02,
         6.28482252e-02,  -2.05473918e-02,   2.58471048e-03,
         4.29173782e-02,  -1.73387919e-02,   5.05094491e-02,
        -2.66625565e-02,  -7.77995214e-02,  -3.20299827e-02,
         6.16297275e-02,  -2.62512118e-02,  -1.72566343e-03,
        -4.62712161e-02,   3.09129804e-02,   4.63533439e-02,
         7.30385184e-02,   4.64000404e-02,   3.62580791e-02,
         2.61157304e-02,   3.05051114e-02,  -4.09506075e-02,
        -5.38467616e-02,  -1.89496744e-02,  -2.23266371e-02,
         5.77427447e-02,  -4.83429320e-02,   7.73884803e-02,
        -5.83697036e-02,  -5.03925271e-02,   7.52308369e-02,
         5.03836200e-02,   3.72075383e-03,   2.88105924e-02], dtype=float32), array([[-0.01994321, -0.07397682, -0.01363736, ...,  0.0576637 ,
        -0.02481192, -0.04993605],
       [ 0.01185805,  0.00379993,  0.02091058, ...,  0.0138156 ,
         0.00478375, -0.02181208],
       [-0.04302268, -0.08896112, -0.01350652, ...,  0.0242201 ,
        -0.01572258, -0.08748382],
       ..., 
       [ 0.01482919,  0.03390099,  0.00606664, ...,  0.07788717,
         0.00132192, -0.03206412],
       [-0.15872145, -0.23166059, -0.08034801, ..., -0.0818229 ,
        -0.13692872, -0.20709004],
       [-0.02123645, -0.71349388, -0.06845216, ..., -0.06303679,
        -0.09705815, -0.57443225]], dtype=float32), array([[ 0.        ,  0.        ,  0.        , ...,  0.        ,
         0.        ,  0.        ],
       [-0.08085101,  0.02538112,  0.06733221, ...,  0.11001154,
        -0.02300517, -0.02650033],
       [ 0.13698182,  0.64890939, -0.00730351, ...,  0.23487224,
         0.14287613, -0.23931247],
       ..., 
       [-0.18766031,  0.21529819,  0.19916505, ..., -0.28947273,
        -0.17249936,  0.24727306],
       [-0.18756302,  0.28895566, -0.02060606, ...,  0.11290564,
         0.02799299, -0.23207577],
       [ 0.31433237,  0.03292316,  0.01892814, ..., -0.12459382,
         0.20827885,  0.174603  ]], dtype=float32)]